digraph Tree {
node [shape=box] ;
0 [label="PAY_0 <= 1.5\ngini = 0.3489\nsamples = 15000\nvalue = [11623, 3377]\nclass = No Default"] ;
1 [label="PAY_0 <= 0.5\ngini = 0.2876\nsamples = 13433\nvalue = [11094, 2339]\nclass = No Default"] ;
0 -> 1 [labeldistance=2.5, labelangle=45, headlabel="True"] ;
2 [label="PAY_3 <= 1.0\ngini = 0.2485\nsamples = 11472\nvalue = [9804, 1668]\nclass = No Default"] ;
1 -> 2 ;
3 [label="(...)"] ;
2 -> 3 ;
2808 [label="(...)"] ;
2 -> 2808 ;
3085 [label="PAY_5 <= 1.0\ngini = 0.4502\nsamples = 1961\nvalue = [1290, 671]\nclass = No Default"] ;
1 -> 3085 ;
3086 [label="(...)"] ;
3085 -> 3086 ;
3871 [label="(...)"] ;
3085 -> 3871 ;
4036 [label="RATIO_1 <= 0.4746\ngini = 0.4472\nsamples = 1567\nvalue = [529, 1038]\nclass = Yes Default"] ;
0 -> 4036 [labeldistance=2.5, labelangle=-45, headlabel="False"] ;
4037 [label="RATIO_1 <= 0.0929\ngini = 0.3888\nsamples = 53\nvalue = [39, 14]\nclass = No Default"] ;
4036 -> 4037 ;
4038 [label="(...)"] ;
4037 -> 4038 ;
4043 [label="(...)"] ;
4037 -> 4043 ;
4062 [label="RATIO_2 <= 96.6456\ngini = 0.4378\nsamples = 1514\nvalue = [490, 1024]\nclass = Yes Default"] ;
4036 -> 4062 ;
4063 [label="(...)"] ;
4062 -> 4063 ;
4572 [label="(...)"] ;
4062 -> 4572 ;
}